0.45623044
-0.54516842
-0.21066488
1.04021785
-0.32325189
-0.17194856
0.38852499
0.61998467
0.62823167
0.94038002
0.06157041
-0.47955714
0.76311091
0.17962342
0.13026853
-0.20594026
1.27690211
-0.52529005
0.94700603
0.18761296
-0.78896344
0.38548471
0.60117828
-0.71935312
-0.19288944
1.06118369
-0.40420689
0.76261252
0.69310467
0.17655061
-0.01999695
0.71246779
0.35057803
0.3402976
-0.13792577
0.31382678
0.24100894
0.86744259
0.00001054
0.26861425
0.08788153
0.12874596
0.17074474
0.45256137
0.08681997
0.08279209
0.6402719
1.00717687
0.31467187
0.00982619
0.85695504
0.12081035
-0.02499074
0.36694401
0.66378954
-0.12663443
-0.27024176
-0.25401975
-0.03122946
-0.07915539
0.2057958
0.25292517
0.71184158
0.35742336
0.32138931
0.7129953
-0.13178586
0.19857263
0.1506147
-0.35657871
0.10260337
-0.09696871
0.75248847
0.9212997
0.57991768
0.71576925
0.07104315
0.21588257
0.13051991
0.09090708
0.65939213
0.75872138
0.4731124
0.58481462
0.56251697
0.02225276
0.28204355
-0.07233351
0.30467253
0.28444093
-0.11198485
-0.12510017
1.10591953
-0.13406775
0.96094666
0.97587423
-0.09218157
0.23206916
0.94775691
-0.24511919
0.32673372
0.7234278
-0.30337205
0.94995469
0.37519434
-0.00418147
-0.2950572
-0.03182218
-0.07198787
-0.19277392
0.14054665
0.40143707
0.54491103
0.83487268
-0.30100075
-0.01274543
-0.01186538
0.23919745
-0.29778633
0.4571733
-0.46232877
-0.12771208
0.35671462
0.23872392
1.14663338
0.44575487
0.0210682
-0.14156998
1.00637891
0.98553751
-0.23963453
0.98604298
-0.03892899
0.54238336
0.19517769
0.0667195
0.88952795
0.18452988
0.60053813
-0.22977361
-0.0626999
0.91688563
0.77564436
0.33431518
0.65862437
0.61314128
0.16773096
-0.00409407
0.33038906
0.28577642
0.92299219
-0.10486736
0.74476637
0.06525818
-0.07333005
0.22592951
0.7114939
0.66690335
0.43391872
-0.00145698
0.81740931
0.20756504
-0.17338644
0.77864015
0.02157483
0.74239852
0.05452337
0.13446211
1.12219296
0.67206059
-0.36960559
0.68744155
-0.08574521
0.71010698
0.70583585
0.18276147
0.79278246
1.25358246
0.84961021
0.78754358
1.09863824
-0.03434349
-0.01899982
0.38763723
-0.24250926
1.13622001
